tree
version=v4
num_class=1
num_tree_per_iteration=1
label_index=0
max_feature_idx=28
objective=binary sigmoid:1
feature_names=ICULOS HR O2Sat Temp SBP MAP DBP Resp BaseExcess FiO2 pH PaCO2 BUN Calcium Creatinine Glucose Magnesium Potassium Hct Hgb WBC Platelets Age Sex SF_Ratio PLR SI Bicarbonate D/S_BP
feature_infos=[-1.4115511691572189:20.533996338783492] [-2.6517122579168744:6.5818420323803384] [-18.987631937672436:0.96280361934418124] [-2.8540399866889565:5.4043223565388674] [-2.0516302784316891:2.7130416829986901] [-2.2032250336882422:2.6739627218178281] [-1.9093546529573375:4.7381728674103192] [-1.5604783709381815:2.8214053245663204] [-10.521925661211085:7.9569710523681687] [-3.5942295213427493:3.3231811952608923] [-12.280572448088455:6.2832884172368004] [-4.304224272831692:10.466791774817644] [-1.2518798973778609:8.9572993657066142] [-4.6419768444232732:9.3402904297810903] [-0.82623263322685225:8.9518481867577631] [-2.7915718188132082:13.941688906111221] [-4.8295265271285528:8.9562467827804415] [-4.5012669229644144:10.992206676786338] [-3.5302927433852127:5.0631653275599477] [-3.6293675235682827:5.6818987983833997] [-2.3031191740606447:9.9153676895904006] [-2.112389629385397:6.0896994184748934] [-2.9235901747181798:2.3862949186804809] [0:1] [-0.79696560512175485:50.357258241411586] [-1.4360202235197499:70.700397987912865] [-2.5075251135500096:7.1383433143808395] [-8.3595769472105044:8.6103917416885221] [-2.9900465827961566:8.4970639835515502]
tree_sizes=3364 3371 3400 3389 3382 3386 3407 3401 3432 3402

Tree=0
num_leaves=31
num_cat=0
split_feature=0 3 3 20 9 0 10 14 4 11 0 18 9 22 28 24 13 17 0 11 22 17 11 13 27 3 22 13 10 0
split_gain=5637.38 1584.21 829.684 628.764 473.57 450.694 477.909 431.416 378.181 321.075 323.121 314.952 279.994 273.125 269.837 266.335 239.731 239.473 241.503 262.422 235.199 275.395 233.833 224.341 221.084 209.698 209.611 383.764 427.516 290.039
threshold=2.1693839780965805 1.8692679722075303 2.0549325932333358 1.7662756919951423 0.59080396220245379 10.908179842037043 -1.5049980377559729 -0.041696534378224341 -1.0212699667723697 3.0636992080791079 12.353694947350503 -0.09705881519010949 0.52162985503641734 -0.078376745505397236 -2.1104029808686291 -0.60574808159285809 -0.081094424028040069 1.0894503579095025 12.48510541146991 1.2788681023214798 1.1855655454768199 -0.4038964950785226 4.0923949685404013 0.11865225131773612 1.9344199592331848 4.5502650998201597 -1.3021788336982312 0.56808227084573404 -0.25076139806855552 4.2062461719473658
decision_type=2 2 2 2 2 2 2 2 2 2 2 2 2 2 2 2 2 2 2 2 2 2 2 2 2 2 2 2 2 2
left_child=2 3 7 5 14 15 -7 -1 12 10 -10 -6 -5 17 -3 -2 22 18 19 -8 25 -22 -9 -17 -12 -16 27 29 -29 -25
right_child=1 4 -4 8 11 6 13 16 9 -11 24 -13 -14 -15 20 23 -18 -19 -20 -21 21 -23 -24 26 -26 -27 -28 28 -30 -31
leaf_value=-3.6639542330046297 -2.3739963414098484 -0.93769459531570565 -3.3845053226231618 -2.503484284451988 -0.837011888031999 -0.49850968250920191 -1.5772424965122238 -3.5434638883285303 -3.1598593799451518 -0.87379980030873705 -0.38393970525531218 -2.5612032502654927 -0.45877144715536877 -3.2010578364355635 -2.9529890772321226 -3.3154833211849151 -3.6285373089183199 -3.7064690456176677 -0.014769778548390455 -3.5261767558305634 -0.70234876704004101 -3.2757707977929185 -2.5934765438131167 -2.7001260242579166 -2.9312121995331193 -1.1719755103412561 -3.4998731307948554 -0.75310963196225078 -3.6368947132767468 -0.21781323823720111
leaf_weight=3281.2093161549419 2.4765985608100882 0.72234124690294166 125.79056856781244 2.2444174457341428 1.9864384289830921 0.74813914857805031 1.8316510189324686 463.17552667483687 27.990723317489035 0.67074544355273147 0.72234124690294155 2.2702153474092475 0.9545223619788884 22.75374927744269 45.920264981687069 142.97197108343244 793.00169959105551 1.0061181653290985 0.54175593517720688 1.1093097720295189 1.0319160670042036 0.69654334522783656 2.6055880691856137 5.3659635484218624 0.64494754187762737 0.67074544355273147 220.2366866003722 0.54175593517720777 10.061181653290983 0.51595803350210179
leaf_count=127189 96 28 4876 87 77 29 71 17954 1085 26 28 88 37 882 1780 5542 30739 39 21 43 40 27 101 208 25 26 8537 21 390 20
internal_value=-3.60375 -3.28347 -3.63784 -3.34539 -2.76836 -3.37928 -2.99195 -3.64486 -2.927 -3.03711 -3.08654 -1.75658 -1.89337 -3.06042 -2.85617 -3.40765 -3.59509 -2.34754 -1.95496 -2.31237 -2.88485 -1.7394 -3.53815 -3.41439 -1.58548 -2.92735 -3.47413 -3.13018 -3.48955 -2.48238
internal_weight=0 496.687 4665.78 443.389 53.2985 410.161 27.9907 4539.99 33.2277 30.0288 29.358 4.25665 3.19894 27.2426 49.0418 382.17 1258.78 4.48883 3.48272 2.94096 48.3195 1.72846 465.781 379.694 1.36729 46.591 236.722 16.4849 10.6029 5.88192
internal_count=200112 19253 180859 17187 2066 15899 1085 175983 1288 1164 1138 165 124 1056 1901 14814 48794 174 135 114 1873 67 18055 14718 53 1806 9176 639 411 228
is_linear=0
shrinkage=1


Tree=1
num_leaves=31
num_cat=0
split_feature=0 3 14 3 22 1 27 0 20 13 14 6 13 12 12 12 15 12 25 6 3 16 22 0 21 20 24 27 14 0
split_gain=2842.6 631.28 388.278 294.325 292.481 283.353 239.915 230.386 201.312 237.706 183.475 254.673 195.09 315.346 173.376 226.487 151.158 247.936 146.419 142.644 142.242 303.755 288.418 141.035 302.058 170.236 505.919 385.244 261.352 261.052
threshold=2.1036787460368775 1.7578691995920483 -0.041696534378224341 1.4459526362686941 1.2949238932337208 1.0000000180025095e-35 -0.11681631868902387 1.44662642543985 0.01489055976860114 -4.5054832829369911 0.51724334720491838 1.7260119597437249 -4.5520908405176721 1.1065697425119074 6.0173141981727953 6.2757744326812626 4.1786137637272569 -0.16957766537365218 0.27671596306454388 3.2217056518264475 3.6739280885783576 -0.20815933801133338 -0.71050592329095197 -0.59023576841093461 -1.6548350750626122 0.03814609920801728 -0.10662790955179603 -1.8829031588731671 0.18053257516688062 -1.3129933210676645
decision_type=2 2 2 2 2 2 2 2 2 2 2 2 2 2 2 2 2 2 2 2 2 2 2 2 2 2 2 2 2 2
left_child=1 2 -1 -2 16 6 -6 -7 -4 10 11 12 -10 -14 23 -16 18 -18 19 20 -3 22 -22 24 -11 26 27 -26 29 -28
right_child=3 4 8 -5 5 7 -8 -9 9 14 -12 -13 13 -15 15 -17 17 -19 -20 -21 21 -23 -24 -25 25 -27 28 -29 -30 -31
leaf_value=-0.060873907955579801 0.14408584848350858 0.12232497372670935 -0.034161204970978375 0.29282007358084838 -0.10290594066776566 0.10896695211596306 1.6915079010664762 2.205832554279175 0.07265559212893552 2.2938146637720886 -0.10289130248117928 2.0564801259270653 0.55517400359153934 2.5124964524232141 1.6401020117104612 0.0043002985159741377 -0.10319195596070539 2.4769341461980585 -0.023601558942471103 1.4455240489316283 0.24702487880549545 -0.025519587209150832 2.6899132354102435 -0.0035334622274541465 2.6218074358151178 0.025289129953024236 -0.10287305423760665 0.12439716581704861 -0.10283017132905464 2.1285904522270527
leaf_weight=3012.7718295957893 566.58553299866617 154.83953403867781 631.38561726175249 173.87746100500226 0.97344021685421456 7.5452840384095889 3.1763985566794863 0.5630822405219077 6.8307093176990739 0.62589370831847091 5.6533544529229394 1.0651247519999731 5.9264633636921671 0.95588118769228447 1.5469416677951806 1.8690884076058862 0.79905474931001663 0.69758694618940242 75.466061091050506 0.83938480727374454 0.85612943395972241 2.5683883018791667 1.1097974143922327 397.02506331540644 0.62392654083669086 126.47382411919534 0.65123743191361416 61.590123642235994 1.0692038964480159 2.688849568367004
leaf_count=123647 16403 5448 24467 3524 36 264 115 21 246 24 207 39 217 35 41 73 27 22 2621 28 27 81 35 15191 23 4830 24 2256 40 100
internal_value=0 -0.0323998 -0.041456 0.179012 0.122223 0.598536 1.27059 0.254583 0.00549636 0.0462373 0.38161 0.566955 0.45126 0.827024 0.0347048 0.745069 0.0976052 1.09941 0.0912434 0.145339 0.138492 0.690556 1.62607 0.0305971 0.100546 0.0934368 0.222804 0.149443 1.25792 1.69351
internal_weight=0 4508.19 4258.75 740.463 249.434 12.2582 4.14984 8.10837 1245.98 614.596 20.4315 14.7782 13.7131 6.88234 594.164 3.41603 237.176 1.49664 235.679 160.213 159.374 4.53432 1.96593 590.748 193.723 193.097 66.6233 62.2141 4.40929 3.34009
internal_count=200112 180185 171460 19927 8725 436 151 285 47813 23346 744 537 498 252 22602 114 8289 49 8240 5619 5591 143 62 22488 7297 7273 2443 2279 164 124
is_linear=0
shrinkage=0.1


Tree=2
num_leaves=31
num_cat=0
split_feature=0 3 14 3 26 20 27 4 12 16 12 22 22 20 0 21 26 7 1 12 25 5 16 17 0 15 14 15 14 20
split_gain=2078.41 403.047 266.284 221.108 155.837 161.659 151.924 142.526 137.349 125.274 201.284 154.078 172.46 388.29 129.16 135.008 132.418 121.062 113.177 111.267 110.009 140.576 108.864 105.868 103.101 102.081 100.335 250.592 98.6547 125.256
threshold=1.8408578177980666 1.3865399575404374 -0.041696534378224341 1.0449170548529552 0.98310683136419297 -2.086771598903248 0.17548740601737947 0.16989802358522507 -0.16957766537365218 0.10515369175932548 4.0142473807321695 -0.65266610352357379 -1.1643746729409801 0.65363101975710447 -1.0501723928288536 -1.0000000180025095e-35 0.50347801450575314 1.6346451570338514 2.5269752634504772 0.2181126863890494 -0.12628078671999579 -1.5702357371343469 -0.20815933801133338 -2.0465780333653489 -0.52453053635123192 -0.70292380746472705 -0.66124435492821354 -1.0000000180025095e-35 0.18053257516688062 -0.21175928087248075
decision_type=2 2 2 2 2 2 2 2 2 2 2 2 2 2 2 2 2 2 2 2 2 2 2 2 2 2 2 2 2 2
left_child=1 2 -1 7 24 -6 17 18 23 10 11 12 -10 14 -14 16 -16 -5 -2 20 21 -13 -12 -3 -4 -20 27 -25 -9 -30
right_child=3 8 4 6 5 -7 -8 28 9 -11 22 19 13 -15 15 -17 -18 -19 25 -21 -22 -23 -24 26 -26 -27 -28 -29 29 -31
leaf_value=-0.061504361054881551 0.12802078087927105 0.45168948117949476 0.020013631921203871 0.24108719521649277 1.3878648852850608 0.072657913403796737 0.14586133237087537 0.00060003739614896703 0.21875172547441726 0.0338624981386677 0.51469161138573538 1.4015327839662222 0.49783246770736178 -0.027655518927375552 0.50437569365693558 2.9665120077468448 2.2424193846597191 0.50175884068011445 1.4249042797423856 -0.034662344578043867 0.034830319423266851 0.29180703544086634 2.346807895679039 -0.10317911160917866 -0.045515094337911767 0.36830052493987336 -0.001783045536589955 2.2848429809999717 -0.035010187088938924 0.23090684518692506
leaf_weight=2649.8897620998323 369.69444712437689 5.3593320567160836 391.41263596154749 92.858898272737861 0.93930119648575683 185.60307529941201 192.97069039382041 184.82542372494936 11.00029441714287 85.770778570324183 0.64422048442065716 1.1891740504652286 0.83164668083190951 2.6500298622995615 0.82306563295424029 0.84694622457027313 0.93782920949161053 22.046432886272669 1.0467767082154749 28.328623354434967 20.448854684829712 28.479310791939497 0.65313221514224895 1.2770609073340891 621.10609946399927 7.2285257596522552 285.04895512387156 0.66996031254529853 27.648262927308679 49.296631455421448
leaf_count=115239 9830 148 13945 1822 38 6837 3748 5345 331 2839 19 32 27 92 29 28 30 371 32 959 703 840 24 44 24252 166 10187 22 831 1302
internal_value=0 -0.0330861 -0.0438111 0.130437 -0.00470948 0.0792804 0.200068 0.0969273 0.0538264 0.12187 0.199823 0.183022 0.455106 0.882065 1.58298 1.92904 1.43003 0.291101 0.136208 0.123747 0.213287 0.336287 1.43704 0.0113269 -0.0201834 0.501955 0.00310364 0.718527 0.0402103 0.135356
internal_weight=0 4323.91 3848.95 947.616 1199.06 186.542 307.876 639.74 474.959 182.604 96.8331 95.5358 17.0898 6.08952 3.43949 2.60784 1.76089 114.905 377.97 78.446 50.1173 29.6685 1.29735 292.355 1012.52 8.2753 286.996 1.94702 261.77 76.9449
internal_count=200112 176665 160311 23447 45072 6875 5941 17506 16354 5953 3114 3071 537 206 114 87 59 2193 10028 2534 1575 872 43 10401 38197 198 10253 66 7478 2133
is_linear=0
shrinkage=0.1


Tree=3
num_leaves=31
num_cat=0
split_feature=0 3 14 3 0 19 26 25 22 24 19 5 11 21 7 13 11 16 22 12 14 9 0 14 19 15 5 18 14 0
split_gain=1553.83 298.839 237.355 144.402 121.702 138.158 113.927 105.159 117.842 102.54 115.972 97.9755 89.5217 112.951 151.044 88.8712 119.978 85.2193 131.359 82.869 149.133 207.623 185.59 81.2367 168.795 305.097 164.037 109.446 80.9363 296.05
threshold=1.7751525857383637 1.3122741091301144 -0.041696534378224341 1.1637424123094733 2.3664996742756883 2.2650452211759853 0.98310683136419297 0.27671596306454388 1.2614210468110862 0.19595099620711037 -1.9821990660300461 -1.8025988966288147 -0.7785234186011063 3.7623848952528278 0.60003372892862161 -4.5254579504715684 -0.092726244960244605 0.10515369175932548 1.6884243064052287 3.5619419703423509 2.476900040466298 -1.0000000180025095e-35 -0.91876192870944828 0.44990119279731078 -0.049158396852942286 -1.1001882707183286 -0.89683545632054462 -0.16373471888856456 1.5879836022858784 0.26393224836520074
decision_type=2 2 2 2 2 2 2 2 2 2 2 2 2 2 2 2 2 2 2 2 2 2 2 2 2 2 2 2 2 2
left_child=1 2 -1 4 23 9 12 8 11 10 -6 -3 13 -4 -15 16 -11 18 19 -8 21 -21 -23 -2 -25 26 -26 -27 -9 -30
right_child=3 7 6 -5 5 -7 17 28 -10 15 -12 -13 -14 14 -16 -17 -18 -19 -20 20 -22 22 -24 24 25 27 -28 -29 29 -31
leaf_value=-0.059647231513576426 -0.029706000384089368 0.44768267061032518 0.03520625495290456 0.15782595974719987 0.82106707354842268 0.83432905713937344 0.088527810150315689 -0.041474668999934405 0.25175579749078131 -0.1045044724026773 0.1168826125152997 0.042853815171552082 -0.034262418129968129 -0.10267339131251302 2.1921516351768369 0.011806021264430762 1.3478284915472329 -0.0091322811161037073 1.2399877728754438 0.21158652921671531 -0.10290817590314826 0.41537558416017895 2.4374163572837322 -0.0079288738029104338 3.0382318242291033 1.1670500672419599 0.84670389321253969 0.13719256966421253 -0.068477960374349445 2.0117547561011846
leaf_weight=2465.9417356550694 137.7671825774014 6.086371883749961 197.03839309327304 329.31764451786876 2.3512613438069812 2.5528014265000811 101.51243069954216 153.90225958824158 31.637322744354606 1.1070375181734564 439.03107424639165 336.54656157083809 783.59117412380874 0.58097424544393905 0.56647734716534615 136.6660501845181 1.1699597910046566 88.299626488238573 1.0424491222947825 2.4932835195213556 3.0390384066849947 0.77174510248005379 1.1021790169179428 23.471106322482228 0.63658629544079304 1.180351860821246 0.73692438751459011 8.20619306899607 2.8681526742875572 0.8984346855431794
leaf_count=113722 4682 144 7472 5310 41 54 3372 5600 683 27 9916 10782 30235 23 22 3434 25 3088 37 79 111 28 39 735 20 35 25 242 97 32
internal_value=0 -0.0317815 -0.0419971 0.102572 0.0784672 0.100279 -0.00511325 0.0382373 0.0670958 0.0970496 0.120634 0.050045 -0.0190762 0.0409673 1.03024 0.0221292 0.641729 0.0640306 0.122781 0.112088 0.435016 0.809345 1.60467 0.00455121 0.142423 0.470389 1.86242 0.266696 -0.0302661 0.427715
internal_weight=0 4177.92 3645.98 1084.19 754.877 582.878 1180.04 531.939 374.27 580.325 441.382 342.633 981.777 198.186 1.14745 138.943 2.277 198.261 109.961 108.919 7.40625 4.36721 1.87392 171.998 34.2312 10.7601 1.37351 9.38654 157.669 3.76659
internal_count=200112 175566 158228 24546 19236 13497 44506 17338 11609 13443 9957 10926 37752 7517 45 3486 52 6754 3666 3629 257 146 67 5739 1057 322 45 277 5729 129
is_linear=0
shrinkage=0.1


Tree=4
num_leaves=31
num_cat=0
split_feature=0 3 19 15 14 8 13 25 19 13 26 11 15 13 12 0 15 17 25 3 13 20 13 15 16 4 15 8 21 26
split_gain=1172.47 248.639 292.141 305.82 197.248 111.312 461.494 110.614 115.481 226.396 150.757 210.688 151.374 108.725 173.282 144.418 156.366 139.356 164.345 120.192 120.95 119.686 105.048 100.899 214.197 225.389 124.302 100.898 219.961 169.616
threshold=1.7751525857383637 1.0152107154888268 3.0954359311746003 -1.0000000180025095e-35 -0.12250711966735346 3.6752754723924883 0.20188003271181032 -0.12628078671999579 -0.018397430318002696 -4.5654072855407239 1.8890723743190245 0.80408544364703693 -0.53438736850865365 -0.68033445006536974 -0.13727013606009372 4.6661827963652849 0.63332938711556908 -0.77723320832552856 0.27671596306454388 0.569615625026893 -0.27751198811805394 1.1893488249087525 -0.081094424028040069 2.5714984351104131 0.34013846408732029 -0.80685972850800258 3.113222703183506 1.1738638440909066 1.3503380471561723 -0.66894798225932284
decision_type=2 2 2 2 2 2 2 2 2 2 2 2 2 2 2 2 2 2 2 2 2 2 2 2 2 2 2 2 2 2
left_child=1 4 7 -4 -1 22 -7 8 -3 -10 -11 -12 -13 14 15 16 -2 18 -16 -15 -21 -18 23 27 -25 26 -26 -6 -29 -30
right_child=13 2 3 -5 5 6 -8 -9 9 10 11 12 -14 19 17 -17 21 -19 -20 20 -22 -23 -24 24 25 -27 -28 28 29 -31
leaf_value=-0.061387588185943892 0.20764505598717409 0.0059707742156600435 -0.10268735077505081 2.9800201111646492 0.0035087736515099612 2.6707249679642655 0.053055721806118818 -0.020529861184387627 1.7124701771475512 0.080294657778982481 0.23335948555324892 0.5684743309808159 2.1075274947401352 0.042845045912737134 0.91178052400399656 1.2010500748021062 0.60443156501703965 0.060999681232914119 0.16597093459967296 -0.023737853422849186 0.12723600015038719 2.0281463838140001 -0.036763057341391146 0.08039321619029037 1.0590564356260779 0.37648690527669232 3.0213735801609367 0.15156433938020372 0.41180077623288797 2.8741839880761439
leaf_weight=2017.2292350847274 12.815336704254152 220.07079592905939 0.60997436754405499 0.68119962513446697 468.59530920721591 0.79330525547265907 4.4596179816871881 378.83093320019543 0.88127728551626106 168.4937696158886 10.600837020203469 1.4693629164248707 1.1309335250407446 576.02872927673161 4.4516257476061574 2.3221251964569083 1.9717576429247849 65.413146456703544 8.7860374841839057 60.142522975802422 450.87555217370391 0.84288632683455933 748.09598671086133 16.57310902141035 0.68798681534826733 2.7102291435003272 0.6081522274762392 19.245626874268059 0.58332829177379608 0.53750924952328094
leaf_count=98493 296 7415 25 27 16701 34 171 14475 32 5466 317 23 42 14037 60 35 45 1043 165 1019 7828 18 31001 516 22 97 23 638 25 23
internal_value=0 -0.0298999 0.0207403 1.52369 -0.0419847 -0.0109922 0.448381 0.0182571 0.0547499 0.113546 0.105791 0.431219 1.23785 0.0831991 0.184866 0.4652 0.355876 0.12088 0.416775 0.0741642 0.109468 1.03078 -0.0129109 0.0221082 0.239015 0.895184 1.97978 0.0129791 0.230873 1.59266
internal_weight=0 4062.89 782.769 1.29117 3280.12 1262.89 5.25292 781.478 402.647 182.576 181.695 13.2011 2.6003 1183.65 96.6029 17.9521 15.63 78.6508 13.2377 1087.05 511.018 2.81464 1257.64 509.541 20.5795 4.00637 1.29614 488.962 20.3665 1.12084
internal_count=200112 175566 27822 52 147744 49251 205 27770 13295 5880 5848 382 65 24546 1662 394 359 1268 225 22884 8847 63 49046 18045 658 142 45 17387 686 48
is_linear=0
shrinkage=0.1


Tree=5
num_leaves=31
num_cat=0
split_feature=0 14 3 0 14 14 27 17 3 3 0 11 24 0 15 13 15 22 15 8 0 26 3 17 0 13 17 20 19 14
split_gain=923.152 204.227 154.091 122.291 171.535 172.464 240.769 283.55 160.952 105.614 112.222 101.803 96.9194 92.3123 89.8789 87.7146 87.1233 85.0407 91.0361 83.5604 84.3387 75.368 74.7099 74.153 73.7416 82.9231 71.6102 73.8223 116.896 455.118
threshold=1.5780368895592554 -0.041696534378224341 1.7578691995920483 -0.52453053635123192 0.045848266351665397 0.030659717509799896 -0.4745306671059511 -1.542573470481891 0.27255223138560553 1.4682323907917916 2.3664996742756883 3.2131678228469882 -0.11670958664975532 -1.3129933210676645 1.0396225881703889 0.11865225131773612 -1.3650312462207295 -1.1643746729409801 -0.052854685777015527 -1.2599420645268486 6.5059292940369611 1.1962751944123888 -1.7177725060110272 -2.1119119581835748 3.2206676910518239 1.0000000180025095e-35 -2.2892468969759028 0.50939930298550695 2.4420137331429035 0.31521688398209574
decision_type=2 2 2 2 2 2 2 2 2 2 2 2 2 2 2 2 2 2 2 2 2 2 2 2 2 2 2 2 2 2
left_child=1 2 -1 4 5 16 13 -8 11 10 -2 -9 15 -7 -14 17 -3 24 -19 20 -16 -10 -20 -17 -12 -26 -5 -28 -29 -30
right_child=9 3 -4 26 -6 6 7 8 21 -11 12 -13 14 -15 19 23 -18 18 22 -21 -22 -23 -24 -25 25 -27 27 28 29 -31
leaf_value=-0.053683907847104355 -0.0030389587061939722 0.85162102099330805 0.030438883720071915 0.94466674342655432 -0.002018829171638497 -0.11769000501458685 1.5549983050737672 0.012255479386409746 0.2143165855643627 0.1156502754391887 0.012304273085867691 1.263677508463142 0.029956924245047624 0.62471003619829824 0.27037459149362814 0.83892856328685095 -0.027979572281112142 0.069654003592874061 0.81330218623576123 0.13168706937672195 1.3226139122486185 0.58247278955757431 0.24796026833917251 0.07223525794255474 0.30749756861846089 1.2002225893355138 -0.043457805794402393 0.019097000503000665 3.3082203419110083 -0.10269334858558965
leaf_weight=2346.2806690949947 284.18566912598908 1.1458329204469908 240.0212067887187 0.76374386809766193 350.13818878680468 1.8888442814350153 1.380285620689391 68.064235251396894 26.815097328275442 327.21169718727469 1.686953306198119 0.65632821805775066 441.04679244756699 14.785503221675752 2.1191601157188411 1.271677903831004 65.268855527043343 39.807220116257668 2.4921073876321307 57.149812374264002 1.18916654959321 7.0153891425579777 37.683835677802563 157.53913978114724 1.9049242064356802 2.2929205968976021 545.5766419172287 205.9750950820744 0.52774157933890764 1.5117865577340124
leaf_count=118084 9788 37 6367 29 12362 36 32 2100 533 4099 31 11 9019 176 38 30 2265 702 37 1109 20 113 602 3019 24 36 21814 7517 22 60
internal_value=0 -0.0296598 -0.0458769 0.00281549 0.0392811 0.116603 0.187864 0.13127 0.112107 0.0661555 0.0504376 0.0242074 0.0708043 0.540612 0.0456308 0.122401 -0.0128041 0.203827 0.176833 0.159973 0.648598 0.290661 0.283028 0.0783746 0.570713 0.795116 -0.0231508 -0.0241317 0.0265565 0.779903
internal_weight=0 3877.82 2586.3 1291.51 537.159 187.02 120.606 103.931 102.551 1357.58 1030.37 68.7206 746.184 16.6743 501.505 244.679 66.4147 85.868 79.9832 60.4581 3.30833 33.8305 40.1759 158.811 5.8848 4.19784 754.355 753.591 208.015 2.03953
internal_count=200112 171558 124451 47107 17665 5303 3001 2789 2757 28554 24455 2111 14667 212 10186 4481 2302 1432 1341 1167 58 646 639 3049 91 60 29442 29413 7599 82
is_linear=0
shrinkage=0.1


Tree=6
num_leaves=31
num_cat=0
split_feature=0 3 14 26 13 7 25 21 11 19 13 16 14 14 10 5 28 13 11 20 22 27 7 8 21 11 18 15 12 25
split_gain=728.753 172.624 153.805 83.034 80.7422 88.3558 79.8082 84.0471 89.1308 80.4633 108.788 73.6694 179.791 71.9889 82.0864 66.725 78.9973 98.2278 64.2255 76.0347 61.8332 79.8786 58.3041 57.9787 97.3955 107.926 113.416 81.1955 75.9892 62.773
threshold=1.5780368895592554 1.0152107154888268 -0.12250711966735346 -0.77553216378342016 -0.081094424028040069 0.72175272047041339 -0.12628078671999579 -1.1125481958652375 -0.98953793356752595 -0.018397430318002696 -0.51109820687502872 2.6116579299245974 -0.15617819687115711 0.92129627365056377 1.2689122064880376 -0.42061290905077331 -1.3859906028106657 0.20188003271181032 1.9910420903331445 -0.62384990021990216 -1.4314492505553773 0.28177966954698069 1.9389426358883306 -3.7500860728811261 -0.45728488350174329 -1.6753351072083877 -0.16373471888856456 2.0538508011739021 6.0819292567999117 -0.32777916161226567
decision_type=2 2 2 2 2 2 2 2 2 2 2 2 2 2 2 2 2 2 2 2 2 2 2 2 2 2 2 2 2 2
left_child=1 2 -1 -2 5 -4 7 8 -3 -9 20 15 -13 -8 -15 16 17 -12 -7 -20 -11 -22 -5 24 25 26 -6 -27 -25 -30
right_child=3 6 4 22 23 18 13 9 -10 10 11 12 -14 14 -16 -17 -18 -19 19 -21 21 -23 -24 28 -26 27 -28 -29 29 -31
leaf_value=-0.05767960935436596 0.0092376669511192687 1.082281315080946 -0.003881334968982169 0.05967510842224634 0.090278777068367511 0.070887541266906245 -0.032359149583614279 -0.0053931077066695574 0.19287789073844885 0.91130481699812749 0.27095051961782068 2.0017369575234998 -0.10316144295083125 0.10392604436265961 0.94414906325145265 0.0086022688315154448 0.10758170325644419 1.4526775921772139 1.084598043291473 0.23380665863045547 0.1725003508475329 0.86228365476138602 0.12793822537390973 -0.04127495943797016 -0.077027488413615564 -0.023284446187173673 1.9819655820272493 0.80143662300261154 -0.10246865056365216 0.53346853118167092
leaf_weight=1768.2425867766142 301.17664149962366 1.5014961138367651 407.02240488491952 987.33310164138675 0.51843148469924927 105.8725448846817 336.65960540622473 208.0111118145287 4.5146683733910313 1.6629443280398835 2.6011802349239583 0.66416172496974457 1.0431338660418976 22.822979923337702 1.2251560259610403 114.89123876392841 67.852189725264907 0.96410383470356453 1.1764008831232775 9.8092561028897745 12.273396823555229 1.9448511786758889 143.27675941027701 679.23884195275605 7.8339032121002656 3.6929022707045078 0.81547359749674775 1.7639839705079792 2.4637133441865444 4.1953378897160283
leaf_count=96425 6454 38 13974 19769 21 3551 13447 7113 130 35 58 17 37 634 17 3659 1713 35 31 155 127 28 2331 29577 325 141 32 52 105 81
internal_value=0 -0.027902 -0.038815 0.0558966 -0.0115713 0.0181237 0.0140418 0.0437849 0.414853 0.0383653 0.0830065 0.0617776 0.715673 -0.0204193 0.146732 0.0557854 0.13169 0.590506 0.0947682 0.324914 0.334334 0.266853 0.0683258 -0.0337785 0.163241 0.440417 1.24675 0.243314 -0.0379793 0.298185
internal_weight=0 3771.28 2992.65 1431.79 1224.4 523.881 778.632 417.924 6.01616 411.908 203.897 188.016 1.7073 360.708 24.0481 186.309 71.4175 3.56528 116.858 10.9857 15.8812 14.2182 1130.61 700.523 14.6247 6.79079 1.33391 5.45689 685.898 6.65905
internal_count=200112 171558 144470 28554 48045 17711 27088 12990 168 12822 5709 5519 54 14098 651 5465 1806 93 3737 186 190 155 22100 30334 571 246 53 193 29763 186
is_linear=0
shrinkage=0.1


Tree=7
num_leaves=31
num_cat=0
split_feature=0 14 3 16 0 0 14 1 8 20 16 8 18 15 14 3 7 3 0 16 27 10 9 21 21 21 16 5 20 20
split_gain=584.789 151.588 118.029 110.275 100.185 151.473 100.62 121.064 84.089 125.255 108.699 180.804 126.874 83.7336 79.9621 80.3951 76.4225 70.8765 75.7139 69.1217 66.3944 94.5694 76.7562 73.8031 65.6768 150.759 86.1836 63.8129 58.2154 108.857
threshold=1.5780368895592554 -0.041696534378224341 1.7578691995920483 1.0450927810713027 -0.39312007223182649 -1.3129933210676645 0.045848266351665397 0.49194849552313064 0.70062380630412069 2.6316659926247277 -0.83478539755265102 0.95977906509212241 -0.059857753195821088 -1.3891078803573114 0.030659717509799896 2.5005276836952697 2.6692565851390815 1.4682323907917916 2.3664996742756883 -2.4796788038486102 -1.4710206376959623 0.84215678429664254 -0.51598175245412869 2.99979397138152 2.1298754360023984 2.3106377290681901 -1.2264266847659744 -1.6747469033237625 1.5396258513540606 1.6014394442561739
decision_type=2 2 2 2 2 2 2 2 2 2 2 2 2 2 2 2 2 2 2 2 2 2 2 2 2 2 2 2 2 2
left_child=1 2 -1 4 5 -3 7 13 28 10 11 -10 -13 -7 -9 -16 -15 18 -2 -6 21 23 -23 -21 -4 -26 -27 -20 -8 -30
right_child=17 3 24 -5 19 6 8 14 9 -11 -12 12 -14 16 15 -17 -18 -19 27 20 -22 22 -24 -25 25 26 -28 -29 29 -31
leaf_value=-0.048740257131950133 -0.0078033468467623383 -0.10547546400234878 0.013339891667178437 -0.062899380292637294 0.92704793068277425 1.04549893719148 -0.010122961810217209 0.047129605864937897 1.8262365845041708 1.4234293987711744 0.047676572416072115 0.10941178359377435 1.2986578116201064 0.050108198952863052 0.27850966781246417 0.85505064661878216 0.64367625562277653 0.085989163356372855 0.21497323865256668 0.052653296159113995 -0.029059831027562179 0.20369866028840394 1.7826972429340846 1.1211855051637716 1.2238572172839541 0.81858941397471385 -0.021833882191644782 0.046330949869077334 0.73973795815359766 0.07800584413275817
leaf_weight=2134.0108315851539 297.14139940217137 58.895445881411433 239.06339825689793 221.11960494332016 0.77697660773992439 0.86930045858025451 221.53066773526371 15.344440769404171 0.8812728077173223 0.7858760692179193 25.526860371232033 5.5523032713681459 1.0699443053454158 122.29794087447226 39.651033215224743 2.5757453553378573 2.208270886912941 369.34841020219028 23.079149588942528 57.256073299795389 483.49938383698463 0.65226537920534611 0.58304425701498874 0.65377786941826244 1.4310315400362004 1.4624641872942437 7.3656780049204817 807.09311088174582 2.7272914852947023 28.090954955667257
leaf_count=118084 9788 1948 6148 8609 32 22 8128 491 34 24 833 105 36 3546 603 27 29 4099 365 1939 19655 25 18 28 41 20 158 14302 91 884
internal_value=0 -0.0261789 -0.0411338 0.00139645 0.0146657 0.0456876 0.0646656 0.122588 0.0276353 0.175716 0.14603 0.480627 0.301556 0.0674645 0.242635 0.313677 0.0606359 0.0479708 0.0355146 -0.0154763 -0.0168258 0.0831849 0.948958 0.0647166 0.0239721 0.271729 0.11739 0.0510193 0.00779157 0.136566
internal_weight=0 3675.88 2383.33 1292.55 1071.43 528.007 469.112 182.947 286.165 33.8163 33.0304 7.50352 6.62225 125.376 57.5712 42.2268 124.506 1496.66 1127.31 543.422 542.645 59.1452 1.23531 57.9099 249.323 10.2592 8.82814 830.172 252.349 30.8182
internal_count=200112 171558 124451 47107 38498 16801 14853 4718 10135 1032 1008 175 141 3597 1121 630 3575 28554 24455 21697 21665 2010 43 1967 6367 219 178 14667 9103 975
is_linear=0
shrinkage=0.1


Tree=8
num_leaves=31
num_cat=0
split_feature=0 3 14 26 12 17 8 16 9 20 15 8 0 0 22 18 14 28 7 26 25 5 22 14 14 3 21 25 0 21
split_gain=473.012 131.562 120.029 67.7426 61.3004 64.0613 110.966 63.6499 61.1832 59.8268 160.176 278.51 58.8486 64.6777 60.0151 55.8121 61.7463 55.7573 296.787 54.9866 50.1491 73.2042 50.914 171.447 178.89 49.0999 49.0674 58.7147 59.5522 49.6082
threshold=1.5780368895592554 1.0152107154888268 -0.12250711966735346 0.8232305590780461 -0.16957766537365218 -1.7292418271053938 -0.62895534747780124 0.10515369175932548 -2.1069862172729663 5.9696000093388424 0.22402660679367647 -0.14100150492761329 -0.52453053635123192 -1.3129933210676645 -2.7263658712490861 -0.09705881519010949 7.3996115276624099 -2.420865428607756 -1.347470135740046 -0.77553216378342016 1.0827094626336233 0.28762442715950098 1.5303920119588399 -0.021493888055942063 -0.075367611582028135 2.6564859653569468 -0.36690373696884754 -0.52927753650453546 0.92098456896222813 -0.33301080701901159
decision_type=2 2 2 2 2 2 2 2 2 2 2 2 2 2 2 2 2 2 2 2 2 2 2 2 2 2 2 2 2 2
left_child=1 2 9 12 5 6 -3 25 -2 17 -11 -12 13 -4 -14 16 20 18 -1 -10 22 -22 -15 24 -24 -6 27 28 -7 -28
right_child=8 4 3 -5 7 26 -8 -9 19 10 11 -13 14 15 -16 -17 -18 -19 -20 -21 21 -23 23 -25 -26 -27 29 -29 -30 -31
leaf_value=2.7037894673744902 -0.085078724817776064 1.353404235944482 -0.10430944146957521 0.034020343654509191 0.061160527542216993 0.10254456210800222 0.11713848402871208 -0.0082526830376876709 0.0065378458441000377 -0.10171207055153784 -0.10171207055153762 3.8259900825449016 0.8644743392692178 0.0205661437856503 -0.04681127511831093 -0.031688075713040935 1.0600008763435298 -0.054295307643008286 -0.029776133681639519 0.054146181359206381 -0.0039732935443172988 0.35444199376534147 0.27518880496286818 0.0058642937896188777 2.1163539353374836 0.21082025988930952 0.28839146623521467 -0.077624053878884824 1.0668432239961279 -2.0731018601455366e-05
leaf_weight=0.46337524801492724 37.270902944728732 0.75562585331499832 48.186558512970805 262.45420878566802 173.90356295183301 10.051602542400357 18.547942044213414 138.53734744898975 303.34870455786586 1.6218133680522435 0.39717878401279449 0.33098232001066197 0.72368018329143424 200.28478419780731 527.94374433532357 137.24478510767221 0.60223172605037589 1590.1549091432244 2.7802514880895606 1211.425139343366 10.715012524276974 12.17183109000325 1.2772546187043192 6.2745156418532115 0.89925488643348206 25.083426101133227 6.1086793914437285 159.41293888166547 0.68401620909571725 251.54258472286165
leaf_count=28 833 35 1953 8729 4891 281 514 4817 6189 98 24 20 28 6687 24228 5493 27 96087 168 21532 374 259 40 199 28 360 247 7075 29 8839
internal_value=0 -0.0245747 -0.0347014 -0.0109318 0.0116219 -0.0126637 0.165531 0.0437919 0.0414977 -0.0527069 0.451485 1.68361 -0.0233989 0.00465735 -0.0455638 0.0188689 0.048748 -0.0534504 0.360733 0.0446121 0.0461187 0.186641 0.0307111 0.271141 1.03589 0.080026 -0.0207044 -0.0623796 0.163985 0.00681726
internal_weight=0 3589.15 2804.53 1208.78 784.628 447.103 19.3036 337.524 1552.04 1595.75 2.34997 0.728161 946.324 417.656 528.667 369.47 232.225 1593.4 3.24363 1514.77 231.623 22.8868 208.736 8.45103 2.17651 198.987 427.8 170.149 10.7356 257.651
internal_count=200112 171558 144470 48045 27088 17020 549 10068 28554 96425 142 44 39316 15060 24256 13107 7614 96283 196 27721 7587 633 6954 267 68 5251 16471 7385 310 9086
is_linear=0
shrinkage=0.1


Tree=9
num_leaves=31
num_cat=0
split_feature=0 3 20 19 27 17 22 16 0 17 0 22 14 1 27 8 6 0 24 5 6 3 15 13 8 0 13 27 19 17
split_gain=388.217 161.957 130.329 79.7812 217.182 192.661 502.739 415.567 498.91 389.297 167.369 157.786 86.6552 86.5311 223.669 78.6734 245.551 110.936 83.2463 73.1835 71.0743 70.3243 68.8319 66.3222 64.6636 61.758 59.0677 63.7513 84.0456 99.3604
threshold=2.3007944422159858 1.0152107154888268 1.0000000180025095e-35 1.7341396852752309 0.024225338686793045 -0.030559781831517027 -1.1643746729409801 -0.20815933801133338 -0.19600437605271834 -0.4038964950785226 -0.7216462325303401 -0.19279212668458279 0.030659717509799896 -2.2720430847961004 -0.14543346656237816 -1.7557173422082433 2.2141897620207245 0.39534271248460623 -0.60145308140061526 -1.5702357371343469 -0.02935077610335966 2.5005276836952697 0.94632563089113386 -4.5054832829369911 5.8161232623803292 1.1838054972010392 -0.53052444355603723 0.75805077343923244 -0.018397430318002696 -0.88923422229963045
decision_type=2 2 2 2 2 2 2 2 2 2 2 2 2 2 2 2 2 2 2 2 2 2 2 2 2 2 2 2 2 2
left_child=1 2 -1 12 15 6 10 8 11 -10 -6 -8 13 14 -4 16 17 -5 -17 20 -14 26 -22 -21 -15 -9 27 -3 29 -29
right_child=-2 21 3 4 5 -7 7 25 9 -11 -12 -13 19 24 -16 18 -18 -19 -20 23 22 -23 -24 -25 -26 -27 -28 28 -30 -31
leaf_value=-0.051837636794568709 0.043726687098410585 0.059565665283266456 2.2377047371627188 -0.10276656715238353 1.8365958611030315 0.066829220056855695 2.0943883281026912 -0.0013783280015453416 1.8037989574125408 5.9899189405419948 4.9931214014766452 -0.10162213293417899 0.069018487099448286 -0.038721900747840154 -0.10172966961222077 0.92537987680926914 2.4772277102361051 1.5087977442953013 -0.05996288967241719 0.14969733528055357 0.30384599264233875 0.092007835174928998 1.2730554339014191 -0.0037673707382030585 0.83599769253215794 0.951935744172414 -0.0025312125011465866 0.69012719644198872 1.1246454005448239 -0.1097998666632944
leaf_weight=1533.1518436241895 1253.0771234016865 68.982731711119413 0.59844650328159321 3.0907098688185211 0.36115657910704613 11.033037759363649 0.45537133887410175 6.5092371255159405 0.57721362821757793 0.36115657910704513 0.31404919922351737 1.1623590663075447 27.736279767006636 812.27106290124357 1.2888125255703915 0.87129846960306068 0.50400089100003231 0.49564804136753071 53.803734729997814 29.941978832706809 8.8573542367666924 109.66184579022229 0.79883385822177011 473.33573304861784 0.84600705467164417 0.75876289792358864 706.94915271922946 2.6384542789310217 1.2207360919564951 3.7736916150897741
leaf_count=83383 18131 1854 37 136 23 415 29 298 33 23 20 74 776 47360 79 24 26 13 2826 543 215 2102 28 16442 32 35 24918 68 43 126
internal_value=0 -0.0203299 -0.0315615 -0.00991309 0.0869378 0.358629 0.665262 0.483851 1.58056 3.41494 3.30475 0.516528 -0.0156497 -0.036242 0.640101 -0.012613 0.410413 0.119958 -0.0442605 0.0153912 0.150366 0.0170043 0.384026 0.00536285 -0.0378118 0.0981455 0.00650741 0.0899088 0.364137 0.219352
internal_weight=0 3862.35 2969.12 1435.97 80.2977 21.5323 10.4993 9.8241 2.5561 0.93837 0.675206 1.61773 1355.67 815.004 1.88726 58.7654 4.09036 3.58636 54.675 540.67 37.3925 893.227 9.65619 503.278 813.117 7.268 783.565 76.6156 7.63288 6.41215
internal_count=200112 181981 152870 69487 3975 950 535 492 159 56 43 103 65512 47508 116 3025 175 149 2850 18004 1019 29111 243 16985 47392 333 27009 2091 237 194
is_linear=0
shrinkage=0.1


end of trees

feature_importances:
ICULOS=38
Creatinine=27
Temp=24
Calcium=18
Glucose=16
Age=15
WBC=14
Magnesium=12
BUN=11
Potassium=11
Platelets=11
BaseExcess=10
PaCO2=10
Bicarbonate=10
Hgb=9
PLR=9
SI=9
MAP=7
Resp=6
FiO2=5
Hct=5
SF_Ratio=5
HR=4
DBP=4
pH=4
SBP=3
D/S_BP=3

parameters:
[boosting: gbdt]
[objective: binary]
[metric: binary_logloss]
[tree_learner: serial]
[device_type: cpu]
[data_sample_strategy: bagging]
[data: ]
[valid: ]
[num_iterations: 10]
[learning_rate: 0.1]
[num_leaves: 31]
[num_threads: 0]
[seed: 0]
[deterministic: 0]
[force_col_wise: 0]
[force_row_wise: 0]
[histogram_pool_size: -1]
[max_depth: -1]
[min_data_in_leaf: 20]
[min_sum_hessian_in_leaf: 0.001]
[bagging_fraction: 1]
[pos_bagging_fraction: 1]
[neg_bagging_fraction: 1]
[bagging_freq: 0]
[bagging_seed: 3]
[feature_fraction: 1]
[feature_fraction_bynode: 1]
[feature_fraction_seed: 2]
[extra_trees: 0]
[extra_seed: 6]
[early_stopping_round: 0]
[early_stopping_min_delta: 0]
[first_metric_only: 0]
[max_delta_step: 0]
[lambda_l1: 0]
[lambda_l2: 0]
[linear_lambda: 0]
[min_gain_to_split: 0]
[drop_rate: 0.1]
[max_drop: 50]
[skip_drop: 0.5]
[xgboost_dart_mode: 0]
[uniform_drop: 0]
[drop_seed: 4]
[top_rate: 0.2]
[other_rate: 0.1]
[min_data_per_group: 100]
[max_cat_threshold: 32]
[cat_l2: 10]
[cat_smooth: 10]
[max_cat_to_onehot: 4]
[top_k: 20]
[monotone_constraints: ]
[monotone_constraints_method: basic]
[monotone_penalty: 0]
[feature_contri: ]
[forcedsplits_filename: ]
[refit_decay_rate: 0.9]
[cegb_tradeoff: 1]
[cegb_penalty_split: 0]
[cegb_penalty_feature_lazy: ]
[cegb_penalty_feature_coupled: ]
[path_smooth: 0]
[interaction_constraints: ]
[verbosity: 1]
[saved_feature_importance_type: 0]
[use_quantized_grad: 0]
[num_grad_quant_bins: 4]
[quant_train_renew_leaf: 0]
[stochastic_rounding: 1]
[linear_tree: 0]
[max_bin: 255]
[max_bin_by_feature: ]
[min_data_in_bin: 3]
[bin_construct_sample_cnt: 200000]
[data_random_seed: 1]
[is_enable_sparse: 1]
[enable_bundle: 1]
[use_missing: 1]
[zero_as_missing: 0]
[feature_pre_filter: 1]
[pre_partition: 0]
[two_round: 0]
[header: 0]
[label_column: ]
[weight_column: ]
[group_column: ]
[ignore_column: ]
[categorical_feature: ]
[forcedbins_filename: ]
[precise_float_parser: 0]
[parser_config_file: ]
[objective_seed: 5]
[num_class: 1]
[is_unbalance: 0]
[scale_pos_weight: 1]
[sigmoid: 1]
[boost_from_average: 1]
[reg_sqrt: 0]
[alpha: 0.9]
[fair_c: 1]
[poisson_max_delta_step: 0.7]
[tweedie_variance_power: 1.5]
[lambdarank_truncation_level: 30]
[lambdarank_norm: 1]
[label_gain: ]
[lambdarank_position_bias_regularization: 0]
[eval_at: ]
[multi_error_top_k: 1]
[auc_mu_weights: ]
[num_machines: 1]
[local_listen_port: 12400]
[time_out: 120]
[machine_list_filename: ]
[machines: ]
[gpu_platform_id: -1]
[gpu_device_id: -1]
[gpu_use_dp: 0]
[num_gpu: 1]

end of parameters

pandas_categorical:[]
